16
2.686981404960115
1.295152495487135
2.3995858493755176
2.1280844749970456
-0.4508070849122792
3.0328926968664187
1.2792104689347499
1.3172122804844386
1.9824499826663315
-0.02469726392674006
-0.4585577330067285
1.6716785753202128
1.083648874651378
-1.4033951702662057
4.878422997164943
0.15424994047182802
0.6973157468766604
-0.3437295919857581
1.8779108123877193
-0.30611454433129465
2.448941365226691
1.3897221896240224
2.0639204243742397
-0.7125246739903321
-0.7525192297426515
0.5815628193525219
-2.0487914909356832
-2.283631018490458
0.13046618388145065
4.10069083985008
3.5899921870626064
0.35582278069320655
3.0956918938290006
-0.9489679330664496
0.747283268361851
2.9100646771384517
3.0373007780368515
1.3315300973759703
0.8112020734860954
1.0078462749026165
-0.47603038287731464
0.9072633153309715
-1.7448373617204633
1.009741963486185
-1.0737720216752118
-0.39503087638005585
-1.3984010116055876
-0.7423174006360403
0.41312238898308706
-0.41820216174104874
3.4019079414287487
-0.10042311044864377
3.4469435886051607
0.09343270154796891
-0.5299695604169459
-1.3192888865349113
0.6297301356808661
1.4741512886066892
-0.31232005410713937
-1.5248785271021728
0.486804234797122
0.7204054621408732
1.0099639683347401
0.24915398827009455
0.47744362280796954
-0.7828978024360056
-2.3726059020648416
0.3659139347345234
2.187404039027601
1.0313878220041814
2.0609857741263875
3.013952046373015
3.255656650445679
1.377162351308473
-1.6007432611127546
0.9175456721042617
-3.1045220947935395
-0.296760942733993
0.4778063912705663
2.143273117538494
2.1555634808827224
-1.511692200222004
-0.7679631299378661
-1.7606346501601713
0.7541355916883901
2.907490756588679
-0.6545485335189416
2.117093176645017
-2.2853302187862172
3.3975250944128037
0.5997619067495542
2.5618305570568114
0.30077244670399295
-0.7696526832568694
1.2024998061400727
1.0264925629963928
0.579928048544158
0.6082179463145444
1.2760695540538012
0.5563782195097806
-0.021247106530415925
-0.7552335615515394
-1.08623855927001
-0.8376057130406809
0.3773317404117604
-1.2853120214304425
-0.9806050282803962
-0.6507811198105399
0.06707237694205472
-2.2374995452240647
-0.43458452274083964
-1.0848524661284538
0.7757993682762383
0.453699434254862
0.03764943455594083
1.2185675120927661
0.7427752917957534
0.13949762529921045
2.450960546107003
3.178379962931526
0.49038927314410874
0.08705131667632232
1.4317191198255685
1.0662854657519156
-1.332213970987163
0.7028028997515573
1.5448480709243466
0.8395605132424113
0.29878180799215337
1.7578209032430994
0.013692950765158855
0.49278380304073105
0.4118488987231214
0.13284122284302918
1.7492303140665697
